<?xml version="1.0"?>
<opencv_storage>
<cascade>
  <stageType>BOOST</stageType>
  <featureType>HAAR</featureType>
  <height>24</height>
  <width>24</width>
  <stageParams>
    <boostType>GAB</boostType>
    <minHitRate>9.9500000476837158e-01</minHitRate>
    <maxFalseAlarm>5.0000000000000000e-01</maxFalseAlarm>
    <weightTrimRate>9.4999998807907104e-01</weightTrimRate>
    <maxDepth>1</maxDepth>
    <maxWeakCount>100</maxWeakCount></stageParams>
  <featureParams>
    <maxCatCount>0</maxCatCount>
    <featSize>1</featSize>
    <mode>BASIC</mode></featureParams>
  <stageNum>20</stageNum>
  <stages>
    <!-- stage 0 -->
    <_>
      <maxWeakCount>2</maxWeakCount>
      <stageThreshold>-2.2028297185897827e-01</stageThreshold>
      <weakClassifiers>
        <_>
          <internalNodes>
            0 -1 7 -1.9219076633453369e-01</internalNodes>
          <leafValues>
            9.2307692766189575e-01 -7.9629629850387573e-01</leafValues></_>
        <_>
          <internalNodes>
            0 -1 0 -1.3790459930896759e-01</internalNodes>
          <leafValues>
            -9.5822161436080933e-01 5.7601332664489746e-01</leafValues></_></weakClassifiers></_>
    <!-- stage 1 -->
    <_>
      <maxWeakCount>3</maxWeakCount>
      <stageThreshold>-5.4139339923858643e-01</stageThreshold>
      <weakClassifiers>
        <_>
          <internalNodes>
            0 -1 4 -1.3498067855834961e-01</internalNodes>
          <leafValues>
            1. -7.8181821107864380e-01</leafValues></_>
        <_>
          <internalNodes>
            0 -1 35 -4.7694779932498932e-02</internalNodes>
          <leafValues>
            9.2772179841995239e-01 -6.0982424020767212e-01</leafValues></_>
        <_>
          <internalNodes>
            0 -1 18 -4.9976162612438202e-02</internalNodes>
          <leafValues>
            8.5024899244308472e-01 -5.2610933780670166e-01</leafValues></_></weakClassifiers></_>
    <!-- stage 2 -->
    <_>
      <maxWeakCount>3</maxWeakCount>
      <stageThreshold>-9.0982401371002197e-01</stageThreshold>
      <weakClassifiers>
        <_>
          <internalNodes>
            0 -1 33 8.0204412341117859e-02</internalNodes>
          <leafValues>
            -7.5000000000000000e-01 1.</leafValues></_>
        <_>
          <internalNodes>
            0 -1 14 -8.0614671111106873e-02</internalNodes>
          <leafValues>
            7.0701104402542114e-01 -6.0561519861221313e-01</leafValues></_>
        <_>
          <internalNodes>
            0 -1 46 -5.9915683232247829e-04</internalNodes>
          <leafValues>
            -1. 4.4579115509986877e-01</leafValues></_></weakClassifiers></_>
    <!-- stage 3 -->
    <_>
      <maxWeakCount>2</maxWeakCount>
      <stageThreshold>-3.4678187966346741e-01</stageThreshold>
      <weakClassifiers>
        <_>
          <internalNodes>
            0 -1 5 -2.0106652379035950e-01</internalNodes>
          <leafValues>
            8.3333331346511841e-01 -7.4545454978942871e-01</leafValues></_>
        <_>
          <internalNodes>
            0 -1 34 3.4013425465673208e-04</internalNodes>
          <leafValues>
            3.9867267012596130e-01 -9.7442197799682617e-01</leafValues></_></weakClassifiers></_>
    <!-- stage 4 -->
    <_>
      <maxWeakCount>2</maxWeakCount>
      <stageThreshold>-3.6423778533935547e-01</stageThreshold>
      <weakClassifiers>
        <_>
          <internalNodes>
            0 -1 21 4.3625913560390472e-02</internalNodes>
          <leafValues>
            -7.3451328277587891e-01 1.</leafValues></_>
        <_>
          <internalNodes>
            0 -1 8 1.9331843941472471e-04</internalNodes>
          <leafValues>
            3.7027549743652344e-01 -9.7517007589340210e-01</leafValues></_></weakClassifiers></_>
    <!-- stage 5 -->
    <_>
      <maxWeakCount>3</maxWeakCount>
      <stageThreshold>-7.0103788375854492e-01</stageThreshold>
      <weakClassifiers>
        <_>
          <internalNodes>
            0 -1 41 1.9069813191890717e-02</internalNodes>
          <leafValues>
            -7.0434784889221191e-01 1.</leafValues></_>
        <_>
          <internalNodes>
            0 -1 16 -2.4480719119310379e-02</internalNodes>
          <leafValues>
            9.2987346649169922e-01 -5.4046624898910522e-01</leafValues></_>
        <_>
          <internalNodes>
            0 -1 20 -1.0005205695051700e-04</internalNodes>
          <leafValues>
            -9.2656356096267700e-01 5.6430172920227051e-01</leafValues></_></weakClassifiers></_>
    <!-- stage 6 -->
    <_>
      <maxWeakCount>3</maxWeakCount>
      <stageThreshold>-1.1788300275802612e+00</stageThreshold>
      <weakClassifiers>
        <_>
          <internalNodes>
            0 -1 23 1.7547908425331116e-01</internalNodes>
          <leafValues>
            -7.1929824352264404e-01 1.</leafValues></_>
        <_>
          <internalNodes>
            0 -1 9 -1.6269073239527643e-04</internalNodes>
          <leafValues>
            -8.6158323287963867e-01 5.7062327861785889e-01</leafValues></_>
        <_>
          <internalNodes>
            0 -1 20 2.0848348503932357e-04</internalNodes>
          <leafValues>
            4.0205141901969910e-01 -1.</leafValues></_></weakClassifiers></_>
    <!-- stage 7 -->
    <_>
      <maxWeakCount>3</maxWeakCount>
      <stageThreshold>-4.1469305753707886e-01</stageThreshold>
      <weakClassifiers>
        <_>
          <internalNodes>
            0 -1 26 1.3261225819587708e-01</internalNodes>
          <leafValues>
            -7.3451328277587891e-01 1.</leafValues></_>
        <_>
          <internalNodes>
            0 -1 28 -3.2076515257358551e-02</internalNodes>
          <leafValues>
            9.2088901996612549e-01 -4.9164831638336182e-01</leafValues></_>
        <_>
          <internalNodes>
            0 -1 36 -2.8928466141223907e-02</internalNodes>
          <leafValues>
            8.1146854162216187e-01 -4.9573093652725220e-01</leafValues></_></weakClassifiers></_>
    <!-- stage 8 -->
    <_>
      <maxWeakCount>3</maxWeakCount>
      <stageThreshold>-7.8664499521255493e-01</stageThreshold>
      <weakClassifiers>
        <_>
          <internalNodes>
            0 -1 11 -1.1302737891674042e-01</internalNodes>
          <leafValues>
            7.6923078298568726e-01 -7.5925928354263306e-01</leafValues></_>
        <_>
          <internalNodes>
            0 -1 46 2.6328364037908614e-04</internalNodes>
          <leafValues>
            5.1697254180908203e-01 -7.7169072628021240e-01</leafValues></_>
        <_>
          <internalNodes>
            0 -1 17 -4.5311339199542999e-02</internalNodes>
          <leafValues>
            8.8205832242965698e-01 -5.4435831308364868e-01</leafValues></_></weakClassifiers></_>
    <!-- stage 9 -->
    <_>
      <maxWeakCount>2</maxWeakCount>
      <stageThreshold>-3.2641851902008057e-01</stageThreshold>
      <weakClassifiers>
        <_>
          <internalNodes>
            0 -1 3 -1.5855285525321960e-01</internalNodes>
          <leafValues>
            8.1818181276321411e-01 -7.1428573131561279e-01</leafValues></_>
        <_>
          <internalNodes>
            0 -1 2 -1.0095104516949505e-04</internalNodes>
          <leafValues>
            -9.7393542528152466e-01 3.8786721229553223e-01</leafValues></_></weakClassifiers></_>
    <!-- stage 10 -->
    <_>
      <maxWeakCount>2</maxWeakCount>
      <stageThreshold>-3.0907025933265686e-01</stageThreshold>
      <weakClassifiers>
        <_>
          <internalNodes>
            0 -1 12 1.2959977984428406e-01</internalNodes>
          <leafValues>
            -6.8965518474578857e-01 1.</leafValues></_>
        <_>
          <internalNodes>
            0 -1 32 4.9880705773830414e-04</internalNodes>
          <leafValues>
            3.8058489561080933e-01 -1.</leafValues></_></weakClassifiers></_>
    <!-- stage 11 -->
    <_>
      <maxWeakCount>3</maxWeakCount>
      <stageThreshold>-8.1415367126464844e-01</stageThreshold>
      <weakClassifiers>
        <_>
          <internalNodes>
            0 -1 25 -1.0564377158880234e-01</internalNodes>
          <leafValues>
            8.1818181276321411e-01 -7.1428573131561279e-01</leafValues></_>
        <_>
          <internalNodes>
            0 -1 2 1.5222092042677104e-04</internalNodes>
          <leafValues>
            6.9083648920059204e-01 -6.5911376476287842e-01</leafValues></_>
        <_>
          <internalNodes>
            0 -1 31 -2.5094026932492852e-04</internalNodes>
          <leafValues>
            -7.4841940402984619e-01 5.5924576520919800e-01</leafValues></_></weakClassifiers></_>
    <!-- stage 12 -->
    <_>
      <maxWeakCount>3</maxWeakCount>
      <stageThreshold>-1.1283146142959595e+00</stageThreshold>
      <weakClassifiers>
        <_>
          <internalNodes>
            0 -1 40 1.0229639708995819e-02</internalNodes>
          <leafValues>
            -6.5811967849731445e-01 8.8235294818878174e-01</leafValues></_>
        <_>
          <internalNodes>
            0 -1 22 -2.0011950982734561e-04</internalNodes>
          <leafValues>
            -8.3023267984390259e-01 4.9742931127548218e-01</leafValues></_>
        <_>
          <internalNodes>
            0 -1 45 1.4963829016778618e-04</internalNodes>
          <leafValues>
            3.6003777384757996e-01 -1.</leafValues></_></weakClassifiers></_>
    <!-- stage 13 -->
    <_>
      <maxWeakCount>2</maxWeakCount>
      <stageThreshold>-3.0368214845657349e-01</stageThreshold>
      <weakClassifiers>
        <_>
          <internalNodes>
            0 -1 15 5.3853176534175873e-02</internalNodes>
          <leafValues>
            -6.8695652484893799e-01 8.9473682641983032e-01</leafValues></_>
        <_>
          <internalNodes>
            0 -1 37 1.8132483819499612e-04</internalNodes>
          <leafValues>
            3.8327437639236450e-01 -9.7493118047714233e-01</leafValues></_></weakClassifiers></_>
    <!-- stage 14 -->
    <_>
      <maxWeakCount>2</maxWeakCount>
      <stageThreshold>-2.1285077929496765e-01</stageThreshold>
      <weakClassifiers>
        <_>
          <internalNodes>
            0 -1 30 9.2041172087192535e-02</internalNodes>
          <leafValues>
            -7.0175439119338989e-01 8.9999997615814209e-01</leafValues></_>
        <_>
          <internalNodes>
            0 -1 24 1.5881896615610458e-05</internalNodes>
          <leafValues>
            -7.8768008947372437e-01 4.8890361189842224e-01</leafValues></_></weakClassifiers></_>
    <!-- stage 15 -->
    <_>
      <maxWeakCount>2</maxWeakCount>
      <stageThreshold>-2.9440659284591675e-01</stageThreshold>
      <weakClassifiers>
        <_>
          <internalNodes>
            0 -1 19 1.3052666187286377e-01</internalNodes>
          <leafValues>
            -6.7241376638412476e-01 8.8888889551162720e-01</leafValues></_>
        <_>
          <internalNodes>
            0 -1 1 -3.9056674577295780e-03</internalNodes>
          <leafValues>
            -9.2698645591735840e-01 3.7800720334053040e-01</leafValues></_></weakClassifiers></_>
    <!-- stage 16 -->
    <_>
      <maxWeakCount>2</maxWeakCount>
      <stageThreshold>-2.1812720596790314e-01</stageThreshold>
      <weakClassifiers>
        <_>
          <internalNodes>
            0 -1 6 -2.1053731441497803e-01</internalNodes>
          <leafValues>
            8.0000001192092896e-01 -6.8421053886413574e-01</leafValues></_>
        <_>
          <internalNodes>
            0 -1 29 1.3836252037435770e-04</internalNodes>
          <leafValues>
            4.6608331799507141e-01 -8.2819890975952148e-01</leafValues></_></weakClassifiers></_>
    <!-- stage 17 -->
    <_>
      <maxWeakCount>3</maxWeakCount>
      <stageThreshold>-1.0023080557584763e-01</stageThreshold>
      <weakClassifiers>
        <_>
          <internalNodes>
            0 -1 10 -1.4149717986583710e-01</internalNodes>
          <leafValues>
            8.0000001192092896e-01 -6.8421053886413574e-01</leafValues></_>
        <_>
          <internalNodes>
            0 -1 44 -8.9753892098087817e-05</internalNodes>
          <leafValues>
            -1. 2.8760385513305664e-01</leafValues></_>
        <_>
          <internalNodes>
            0 -1 42 9.1180219897069037e-05</internalNodes>
          <leafValues>
            2.9637587070465088e-01 -9.7360050678253174e-01</leafValues></_></weakClassifiers></_>
    <!-- stage 18 -->
    <_>
      <maxWeakCount>2</maxWeakCount>
      <stageThreshold>-3.5038712620735168e-01</stageThreshold>
      <weakClassifiers>
        <_>
          <internalNodes>
            0 -1 13 7.1665808558464050e-02</internalNodes>
          <leafValues>
            -6.7241376638412476e-01 8.8888889551162720e-01</leafValues></_>
        <_>
          <internalNodes>
            0 -1 43 8.4100349340587854e-05</internalNodes>
          <leafValues>
            3.2202666997909546e-01 -9.7249966859817505e-01</leafValues></_></weakClassifiers></_>
    <!-- stage 19 -->
    <_>
      <maxWeakCount>3</maxWeakCount>
      <stageThreshold>-5.1192206144332886e-01</stageThreshold>
      <weakClassifiers>
        <_>
          <internalNodes>
            0 -1 27 -2.7215000241994858e-02</internalNodes>
          <leafValues>
            4.5454546809196472e-01 -7.6237624883651733e-01</leafValues></_>
        <_>
          <internalNodes>
            0 -1 39 -4.0646087378263474e-02</internalNodes>
          <leafValues>
            9.6119070053100586e-01 -5.2138024568557739e-01</leafValues></_>
        <_>
          <internalNodes>
            0 -1 38 2.8389380313456059e-03</internalNodes>
          <leafValues>
            -4.2203110456466675e-01 7.7183443307876587e-01</leafValues></_></weakClassifiers></_></stages>
  <features>
    <_>
      <rects>
        <_>
          0 0 22 24 -1.</_>
        <_>
          0 12 22 12 2.</_></rects>
      <tilted>0</tilted></_>
    <_>
      <rects>
        <_>
          0 5 24 1 -1.</_>
        <_>
          12 5 12 1 2.</_></rects>
      <tilted>0</tilted></_>
    <_>
      <rects>
        <_>
          0 7 3 3 -1.</_>
        <_>
          0 8 3 1 3.</_></rects>
      <tilted>0</tilted></_>
    <_>
      <rects>
        <_>
          0 8 12 11 -1.</_>
        <_>
          6 8 6 11 2.</_></rects>
      <tilted>0</tilted></_>
    <_>
      <rects>
        <_>
          0 8 24 4 -1.</_>
        <_>
          8 8 8 4 3.</_></rects>
      <tilted>0</tilted></_>
    <_>
      <rects>
        <_>
          0 8 24 5 -1.</_>
        <_>
          8 8 8 5 3.</_></rects>
      <tilted>0</tilted></_>
    <_>
      <rects>
        <_>
          0 10 24 4 -1.</_>
        <_>
          8 10 8 4 3.</_></rects>
      <tilted>0</tilted></_>
    <_>
      <rects>
        <_>
          0 10 24 8 -1.</_>
        <_>
          8 10 8 8 3.</_></rects>
      <tilted>0</tilted></_>
    <_>
      <rects>
        <_>
          0 11 2 8 -1.</_>
        <_>
          1 11 1 8 2.</_></rects>
      <tilted>0</tilted></_>
    <_>
      <rects>
        <_>
          0 12 2 2 -1.</_>
        <_>
          1 12 1 2 2.</_></rects>
      <tilted>0</tilted></_>
    <_>
      <rects>
        <_>
          1 0 12 12 -1.</_>
        <_>
          1 0 6 6 2.</_>
        <_>
          7 6 6 6 2.</_></rects>
      <tilted>0</tilted></_>
    <_>
      <rects>
        <_>
          1 0 14 12 -1.</_>
        <_>
          1 0 7 6 2.</_>
        <_>
          8 6 7 6 2.</_></rects>
      <tilted>0</tilted></_>
    <_>
      <rects>
        <_>
          1 10 10 14 -1.</_>
        <_>
          1 10 5 7 2.</_>
        <_>
          6 17 5 7 2.</_></rects>
      <tilted>0</tilted></_>
    <_>
      <rects>
        <_>
          1 15 12 8 -1.</_>
        <_>
          1 15 6 4 2.</_>
        <_>
          7 19 6 4 2.</_></rects>
      <tilted>0</tilted></_>
    <_>
      <rects>
        <_>
          2 4 8 15 -1.</_>
        <_>
          2 9 8 5 3.</_></rects>
      <tilted>0</tilted></_>
    <_>
      <rects>
        <_>
          2 7 18 9 -1.</_>
        <_>
          2 10 18 3 3.</_></rects>
      <tilted>0</tilted></_>
    <_>
      <rects>
        <_>
          2 9 9 4 -1.</_>
        <_>
          5 9 3 4 3.</_></rects>
      <tilted>0</tilted></_>
    <_>
      <rects>
        <_>
          2 9 12 10 -1.</_>
        <_>
          2 9 6 5 2.</_>
        <_>
          8 14 6 5 2.</_></rects>
      <tilted>0</tilted></_>
    <_>
      <rects>
        <_>
          3 2 9 20 -1.</_>
        <_>
          6 2 3 20 3.</_></rects>
      <tilted>0</tilted></_>
    <_>
      <rects>
        <_>
          3 10 12 14 -1.</_>
        <_>
          3 10 6 7 2.</_>
        <_>
          9 17 6 7 2.</_></rects>
      <tilted>0</tilted></_>
    <_>
      <rects>
        <_>
          3 13 2 1 -1.</_>
        <_>
          4 13 1 1 2.</_></rects>
      <tilted>0</tilted></_>
    <_>
      <rects>
        <_>
          7 0 9 10 -1.</_>
        <_>
          10 0 3 10 3.</_></rects>
      <tilted>0</tilted></_>
    <_>
      <rects>
        <_>
          7 16 2 2 -1.</_>
        <_>
          8 16 1 2 2.</_></rects>
      <tilted>0</tilted></_>
    <_>
      <rects>
        <_>
          8 0 16 12 -1.</_>
        <_>
          8 0 8 6 2.</_>
        <_>
          16 6 8 6 2.</_></rects>
      <tilted>0</tilted></_>
    <_>
      <rects>
        <_>
          8 11 4 3 -1.</_>
        <_>
          10 11 2 3 2.</_></rects>
      <tilted>0</tilted></_>
    <_>
      <rects>
        <_>
          8 13 16 10 -1.</_>
        <_>
          8 13 8 5 2.</_>
        <_>
          16 18 8 5 2.</_></rects>
      <tilted>0</tilted></_>
    <_>
      <rects>
        <_>
          9 0 14 12 -1.</_>
        <_>
          9 0 7 6 2.</_>
        <_>
          16 6 7 6 2.</_></rects>
      <tilted>0</tilted></_>
    <_>
      <rects>
        <_>
          9 0 10 6 -1.</_>
        <_>
          9 3 10 3 2.</_></rects>
      <tilted>0</tilted></_>
    <_>
      <rects>
        <_>
          9 4 6 18 -1.</_>
        <_>
          11 4 2 18 3.</_></rects>
      <tilted>0</tilted></_>
    <_>
      <rects>
        <_>
          9 7 6 1 -1.</_>
        <_>
          11 7 2 1 3.</_></rects>
      <tilted>0</tilted></_>
    <_>
      <rects>
        <_>
          9 14 9 10 -1.</_>
        <_>
          9 19 9 5 2.</_></rects>
      <tilted>0</tilted></_>
    <_>
      <rects>
        <_>
          11 0 6 2 -1.</_>
        <_>
          13 0 2 2 3.</_></rects>
      <tilted>0</tilted></_>
    <_>
      <rects>
        <_>
          11 0 6 2 -1.</_>
        <_>
          11 1 6 1 2.</_></rects>
      <tilted>0</tilted></_>
    <_>
      <rects>
        <_>
          11 10 12 4 -1.</_>
        <_>
          17 10 6 4 2.</_></rects>
      <tilted>0</tilted></_>
    <_>
      <rects>
        <_>
          12 0 2 4 -1.</_>
        <_>
          13 0 1 4 2.</_></rects>
      <tilted>0</tilted></_>
    <_>
      <rects>
        <_>
          12 3 8 12 -1.</_>
        <_>
          12 3 4 6 2.</_>
        <_>
          16 9 4 6 2.</_></rects>
      <tilted>0</tilted></_>
    <_>
      <rects>
        <_>
          12 6 12 5 -1.</_>
        <_>
          16 6 4 5 3.</_></rects>
      <tilted>0</tilted></_>
    <_>
      <rects>
        <_>
          13 10 2 1 -1.</_>
        <_>
          14 10 1 1 2.</_></rects>
      <tilted>0</tilted></_>
    <_>
      <rects>
        <_>
          14 9 8 2 -1.</_>
        <_>
          14 10 8 1 2.</_></rects>
      <tilted>0</tilted></_>
    <_>
      <rects>
        <_>
          15 3 5 10 -1.</_>
        <_>
          15 8 5 5 2.</_></rects>
      <tilted>0</tilted></_>
    <_>
      <rects>
        <_>
          17 4 4 6 -1.</_>
        <_>
          17 4 2 3 2.</_>
        <_>
          19 7 2 3 2.</_></rects>
      <tilted>0</tilted></_>
    <_>
      <rects>
        <_>
          19 5 1 15 -1.</_>
        <_>
          19 10 1 5 3.</_></rects>
      <tilted>0</tilted></_>
    <_>
      <rects>
        <_>
          21 10 3 1 -1.</_>
        <_>
          22 10 1 1 3.</_></rects>
      <tilted>0</tilted></_>
    <_>
      <rects>
        <_>
          21 10 2 2 -1.</_>
        <_>
          21 10 1 1 2.</_>
        <_>
          22 11 1 1 2.</_></rects>
      <tilted>0</tilted></_>
    <_>
      <rects>
        <_>
          21 11 2 2 -1.</_>
        <_>
          22 11 1 2 2.</_></rects>
      <tilted>0</tilted></_>
    <_>
      <rects>
        <_>
          23 11 1 3 -1.</_>
        <_>
          23 12 1 1 3.</_></rects>
      <tilted>0</tilted></_>
    <_>
      <rects>
        <_>
          23 12 1 4 -1.</_>
        <_>
          23 14 1 2 2.</_></rects>
      <tilted>0</tilted></_></features></cascade>
</opencv_storage>
